{
  "schema_version": "observatory-classifier-v1",
  "feature_names": [
    "reward",
    "passed",
    "has_exception",
    "tool_calls_total",
    "trajectory_steps",
    "input_tokens",
    "output_tokens",
    "cost_usd",
    "wall_clock_seconds",
    "search_calls_keyword",
    "search_calls_nls",
    "search_calls_deepsearch",
    "mcp_ratio",
    "ttfr",
    "query_churn_count",
    "edit_verify_cycles",
    "repeated_tool_failures",
    "has_code_nav_tools",
    "has_semantic_search",
    "has_git_tools",
    "has_trajectory"
  ],
  "means": [
    0.4662295123809533,
    0.8412,
    0.0088,
    32.3304,
    64.276,
    520956.8512,
    11635.9944,
    1.653383750299999,
    460.7619968099993,
    5.4844,
    0.6084,
    0.006,
    0.44204552754151283,
    0.4146,
    8.8732,
    0.0304,
    4.7268,
    0.4156,
    0.2836,
    0.046,
    0.9968
  ],
  "stds": [
    0.3297064365464497,
    0.3654894800127684,
    0.09339464652751778,
    24.274769532170627,
    130.20039256469238,
    1713564.1090784334,
    12668.820132118406,
    16.85663135604971,
    930.9649132992243,
    7.454780790875087,
    1.3490179539205844,
    0.09145490692138851,
    0.442689235761253,
    6.501428061587783,
    8.113859855826965,
    0.3070437102433635,
    5.400163123462071,
    0.4928251616953,
    0.4507449833331508,
    0.20948508300115476,
    0.056477960303112404
  ],
  "classifiers": {
    "decomposition_failure": {
      "weights": [
        -0.8776099187697368,
        0.1653088816781481,
        -0.12360111324797463,
        0.08992519568363452,
        0.09419517321685478,
        0.03604865966731699,
        0.4757822734910841,
        0.11097732837400145,
        -0.11117298896271643,
        -0.1085740062525614,
        0.014403481150385923,
        -0.1604362558881138,
        -0.19347365861590712,
        0.1322443136695324,
        -0.2864744947838028,
        -0.13604359476157868,
        0.12509347865549644,
        -0.07733446716525046,
        -0.21777616340980877,
        0.08741692977949614,
        0.09470540461822735
      ],
      "bias": -0.5422853155085545,
      "positive_count": 155,
      "total_count": 2500,
      "train_accuracy": 0.7772,
      "eval_f1": 0.567,
      "eval_precision": 0.4721
    },
    "edit_verify_loop_failure": {
      "weights": [
        -0.02499784202770498,
        0.05333805068615858,
        -0.060641545490089044,
        0.10895955031193477,
        0.011327924126997757,
        -0.10138576406987113,
        0.16516891167203923,
        0.020317153340541853,
        -0.01760447024617633,
        0.04393865591433797,
        -0.018860947439772388,
        -0.03173825564080178,
        -0.016719892444810026,
        -0.024441167667863986,
        -0.021645613840928148,
        0.8376655079541584,
        0.03939329376105945,
        0.1497595788553999,
        -0.04604366889023525,
        -0.08773701510475213,
        -0.02834611282289404
      ],
      "bias": -2.4934462619050115,
      "positive_count": 3,
      "total_count": 2500,
      "train_accuracy": 0.9888,
      "eval_f1": 0.4286,
      "eval_precision": 0.2727
    },
    "exception_crash": {
      "weights": [
        -0.5438656100412205,
        -0.5818207238277455,
        0.7542273614161538,
        -0.4498990006861095,
        -0.012173138323361591,
        0.13563274081494164,
        0.02250617872188523,
        -0.03155890722353121,
        0.1798895931338135,
        -0.08251160118572563,
        -0.08191284348714511,
        0.01530286185702421,
        -0.3919565173737608,
        -0.023455657432738045,
        -0.4612796202174898,
        -0.033663805692627405,
        -0.051257763199536066,
        -0.3497085931879177,
        -0.22562834347637767,
        -0.17165756408092578,
        -0.196836194995841
      ],
      "bias": -2.2392114879232516,
      "positive_count": 36,
      "total_count": 2500,
      "train_accuracy": 0.956,
      "eval_f1": 0.4468,
      "eval_precision": 0.2877
    },
    "incomplete_solution": {
      "weights": [
        -0.39726250031718074,
        0.15200963092426226,
        -0.010283826189658755,
        0.04337036483188017,
        0.0643690186832918,
        0.05970042767657729,
        0.37226000557223854,
        0.02662431921979268,
        0.02627918962983693,
        0.029716350857877095,
        0.053807736831537986,
        -0.07040150465440272,
        -0.22428709363423222,
        0.10581828223109506,
        -0.34745457485501213,
        -0.004914839289577391,
        0.20561974750262144,
        -0.09640038311489116,
        -0.2617484282733823,
        0.09824184313706597,
        0.13482058622609697
      ],
      "bias": -0.2402448746105161,
      "positive_count": 359,
      "total_count": 2500,
      "train_accuracy": 0.7184,
      "eval_f1": 0.7173,
      "eval_precision": 0.7893
    },
    "insufficient_provenance": {
      "weights": [
        0.27824328048351454,
        -0.06138857030984797,
        0.024749092317110543,
        -0.04188863240136001,
        0.034067814480082975,
        0.22928797135746667,
        0.4496457540464243,
        0.013519626827872385,
        0.020411122603832103,
        -0.07319630191292532,
        0.018082197535741328,
        -0.14155363611203234,
        -0.03421554276581554,
        0.06241081634099957,
        -0.5712135773819901,
        -0.1466032141403383,
        0.0030230590973980343,
        -0.1446084833161885,
        -0.13108983499328303,
        0.06933289140344506,
        0.1340159734738676
      ],
      "bias": -0.3487706529890567,
      "positive_count": 255,
      "total_count": 2500,
      "train_accuracy": 0.6836,
      "eval_f1": 0.6213,
      "eval_precision": 0.5597
    },
    "local_remote_mismatch": {
      "weights": [
        -0.11512097795331354,
        -0.265680708521471,
        0.07189500769065771,
        0.3389205290454399,
        -0.013019524303626701,
        0.2374507030176908,
        0.2438880338755548,
        0.07378069114216154,
        0.2763089726420423,
        -0.015023386506842516,
        -0.1411994563750956,
        -0.0792223738557646,
        -0.23571939140146675,
        0.18242619620724082,
        -0.8267372854590098,
        0.22550616722568972,
        -0.14110936608102445,
        -0.20370342509806857,
        -0.4228790043365394,
        0.15291847406163528,
        0.15396576094223627
      ],
      "bias": -1.4641749065290584,
      "positive_count": 33,
      "total_count": 2500,
      "train_accuracy": 0.8596,
      "eval_f1": 0.2363,
      "eval_precision": 0.1373
    },
    "minimal_progress": {
      "weights": [
        -1.1690029886191449,
        0.8474499827912639,
        -0.2550568990089328,
        -0.20448410075517537,
        0.07893841288441,
        0.09373675994179399,
        0.4515158089349408,
        -0.11150894098819075,
        0.10323685040193961,
        0.3001485049191344,
        -0.3634996665871535,
        -0.08987204825991402,
        -0.28341804560647516,
        0.19985901690688607,
        -0.4716426191572069,
        -0.11066573436679765,
        0.03855874461247997,
        -0.14474171640850936,
        -0.1422222456727237,
        0.013302595676143522,
        0.03568723668341383
      ],
      "bias": -0.7746664918313462,
      "positive_count": 52,
      "total_count": 2500,
      "train_accuracy": 0.772,
      "eval_f1": 0.3644,
      "eval_precision": 0.2337
    },
    "missing_code_navigation": {
      "weights": [
        -0.65766049013113,
        0.46403677141270616,
        0.09373453332502606,
        0.1018839275577717,
        0.015758860896310546,
        0.14669526181277992,
        0.1681771940583425,
        -0.0019329007597644002,
        -0.005233249516364165,
        0.026589362793986097,
        0.016194600110487636,
        -0.15385891914935498,
        -0.12626651121091295,
        -0.11809369101848276,
        -0.2354627457059974,
        -0.10842327900743653,
        0.18960560700676213,
        -0.7699738702937904,
        -0.08173496744552662,
        0.23233163602593382,
        0.15810965275337407
      ],
      "bias": -0.5566309516108852,
      "positive_count": 122,
      "total_count": 2500,
      "train_accuracy": 0.6996,
      "eval_f1": 0.5152,
      "eval_precision": 0.3891
    },
    "multi_repo_scope_failure": {
      "weights": [
        -0.6335817280259005,
        -0.5518163070092886,
        -0.21172905578511583,
        0.3800418713122015,
        -0.08539467209425944,
        -0.23012026691586474,
        -0.27108908716726193,
        -0.2013617697429895,
        -0.12099189597329084,
        -0.17931527872086245,
        -0.5445550068788296,
        -0.061385583729409186,
        0.4248167403232932,
        -0.12384952680919374,
        -0.22779488039592732,
        -0.16324660330450402,
        -0.4669334161983371,
        -0.43903341146163644,
        -0.9254393127303087,
        0.3086566681942431,
        0.12388439053600511
      ],
      "bias": -1.2348237151066122,
      "positive_count": 6,
      "total_count": 2500,
      "train_accuracy": 0.8096,
      "eval_f1": 0.087,
      "eval_precision": 0.0455
    },
    "near_miss": {
      "weights": [
        1.6834756059900395,
        0.3673329806479003,
        -0.04448520861890691,
        -0.027691982767399294,
        0.020025943883094123,
        -0.0647482940397431,
        -0.013696416473042526,
        -0.06100328242604086,
        0.06281789724640063,
        0.059980779464556745,
        0.010697875910823225,
        0.08081421808730611,
        -0.26774370995527225,
        0.04927651038605836,
        -0.2027356246862851,
        0.10797992969583584,
        0.057271055803713874,
        0.09513058578106999,
        -0.2732176111476836,
        0.07666632014435722,
        0.044425153737172145
      ],
      "bias": -0.3176996074385034,
      "positive_count": 1120,
      "total_count": 2500,
      "train_accuracy": 0.8992,
      "eval_f1": 0.5455,
      "eval_precision": 0.3908
    },
    "over_exploration": {
      "weights": [
        -0.8640451073728752,
        0.0054316859750597225,
        -0.04578253755487658,
        0.2548160836505573,
        0.12931927295892048,
        0.0840796597447502,
        0.32540522831081425,
        0.13826177512975002,
        0.13379883298811912,
        0.0493206056487463,
        -0.09979551443166462,
        0.07874500624711181,
        -0.3368386417934817,
        0.023664628080314123,
        -0.14997488381679489,
        -0.10544944694198066,
        0.249448978631299,
        -0.2766423435121853,
        -0.21662443081036026,
        0.01915820716831864,
        0.12214646386334324
      ],
      "bias": -0.7368132955557921,
      "positive_count": 169,
      "total_count": 2500,
      "train_accuracy": 0.8184,
      "eval_f1": 0.6512,
      "eval_precision": 0.578
    },
    "query_churn": {
      "weights": [
        -0.4456816015170297,
        0.0253711687979553,
        -0.018420504458055355,
        0.06034674758252551,
        -0.04845083459003738,
        0.11707107198099208,
        -0.33174215736759144,
        -0.0575079029836253,
        -0.06920531840900694,
        0.5164702916509477,
        -0.005888842341813527,
        0.032122184598432676,
        0.48966432689614814,
        -0.04703107754264288,
        1.9354718546903196,
        0.058655652351798704,
        0.0070547845617868156,
        0.30980156697138206,
        0.22766001953728424,
        0.011609664228798786,
        0.16563024710797408
      ],
      "bias": 1.3067049714391326,
      "positive_count": 1812,
      "total_count": 2500,
      "train_accuracy": 0.884,
      "eval_f1": 0.7622,
      "eval_precision": 0.731
    },
    "rate_limited_run": {
      "weights": [
        -0.8531449816257316,
        -0.4185096486363682,
        -0.05690474336039865,
        0.16521319546613292,
        0.21745887721094898,
        -0.2045981363491495,
        -0.3228375305095757,
        -0.1456208977428842,
        0.40961968401430787,
        -0.3672135640049423,
        -0.15442684426327088,
        -0.006162758600437949,
        0.036170607541615635,
        -0.055952591073580915,
        -1.0025655977993764,
        -0.10471896915601692,
        -0.24937754939990162,
        -0.12551785331242418,
        -0.3507056652230792,
        -0.09066836394286398,
        0.17661864885015635
      ],
      "bias": -1.9583252277121974,
      "positive_count": 11,
      "total_count": 2500,
      "train_accuracy": 0.902,
      "eval_f1": 0.1642,
      "eval_precision": 0.0894
    },
    "retrieval_failure": {
      "weights": [
        -0.9044635394402607,
        0.1113604232229107,
        -0.30592333374008923,
        0.06421869803752459,
        0.147741984207736,
        -0.10837721066316167,
        0.10631083696976767,
        0.002316052966773524,
        0.032579221700528835,
        0.18871862999809677,
        0.06033204905336341,
        -0.12337445350698738,
        -0.39273174908180714,
        0.08502270919037337,
        -0.5437673490395275,
        -0.14266179087373845,
        0.16606550538702392,
        -0.14357961428608879,
        -0.26696559204033377,
        0.1023152430441944,
        0.07479094092943679
      ],
      "bias": -0.5441499807303397,
      "positive_count": 197,
      "total_count": 2500,
      "train_accuracy": 0.7772,
      "eval_f1": 0.6571,
      "eval_precision": 0.6188
    },
    "stale_context": {
      "weights": [
        -0.11371905513215783,
        0.060779779037914754,
        -0.2717457582801039,
        0.09170343669511496,
        0.08595890453313984,
        0.03761489071243975,
        0.6632638431033209,
        -0.12161916690335876,
        0.19976700750486734,
        0.15617891674286888,
        -0.26754292398969187,
        -0.03957988993477397,
        -0.04300993064916382,
        0.2560004252045193,
        -0.5762797299365483,
        -0.006322900679818269,
        0.3585184071013156,
        -0.059911509177508246,
        -0.5483566987239575,
        0.22344705369658727,
        0.0007814397706148745
      ],
      "bias": -1.178147145041105,
      "positive_count": 27,
      "total_count": 2500,
      "train_accuracy": 0.8748,
      "eval_f1": 0.2255,
      "eval_precision": 0.1299
    },
    "success_via_code_nav": {
      "weights": [
        1.6417230382718653,
        -0.03644011429101819,
        -0.02856325819491607,
        0.08167396380794197,
        0.0197683561014125,
        -0.10129987691571056,
        0.2523351308151781,
        -0.03890703611587684,
        -0.005859471877680638,
        -0.05088884395827212,
        -0.08852283733993684,
        -0.1078395377401572,
        0.21528880449129398,
        0.004275060529541451,
        -0.1882804099177745,
        0.18096183634286128,
        -0.04891569234452036,
        0.6119490755714528,
        -0.03532791707892194,
        -0.08075936111448477,
        -0.035383608753893014
      ],
      "bias": -1.6427787461737302,
      "positive_count": 44,
      "total_count": 2500,
      "train_accuracy": 0.7732,
      "eval_f1": 0.456,
      "eval_precision": 0.2953
    },
    "success_via_commit_context": {
      "weights": [
        0.2892817896988821,
        0.17317942099444109,
        -0.06600732908521227,
        -0.029903999405559874,
        0.008192762675525699,
        0.2045148698930793,
        -0.2620915457861562,
        0.09208063841954632,
        0.02016519596484196,
        0.015722555206854744,
        0.029625029106436322,
        -0.07287708888640351,
        0.028580493116143267,
        -0.08339740367647797,
        -0.13611389795038206,
        -0.08158769229735925,
        -0.0038459087815220683,
        -0.3190766227111482,
        -0.034071606871431084,
        0.9531110087753557,
        -0.025402476177403946
      ],
      "bias": -2.4269389995739012,
      "positive_count": 4,
      "total_count": 2500,
      "train_accuracy": 0.956,
      "eval_f1": 0.1702,
      "eval_precision": 0.093
    },
    "success_via_decomposition": {
      "weights": [
        1.8174067142887602,
        -0.028961637541974908,
        -0.07662934898473074,
        0.33615423891830276,
        0.0207361713332411,
        0.00607475711496421,
        0.13415478658340996,
        0.08950268576389053,
        0.05914906435137306,
        -0.05208834604560349,
        0.03452623407443418,
        -0.0031639750558839557,
        -0.08258849665701838,
        -0.014690129492029554,
        -0.29938886662882974,
        0.06416080228115438,
        -0.06589477518286796,
        0.03803267421205937,
        0.07209540365065836,
        -0.038778716169611,
        -0.04105243946253362
      ],
      "bias": -1.7032747584365295,
      "positive_count": 74,
      "total_count": 2500,
      "train_accuracy": 0.7976,
      "eval_f1": 0.6167,
      "eval_precision": 0.4458
    },
    "success_via_local_exec": {
      "weights": [
        1.5378287231671735,
        0.053966534906569816,
        -0.06863505563061695,
        0.2838928443489227,
        0.06598515954972149,
        -0.1485012505203524,
        0.1030682892617291,
        0.10543666228365083,
        -0.04080249307799263,
        -0.17759872502113647,
        0.12129545379532543,
        0.02780659528909913,
        -0.5639490938004367,
        0.12491248781592176,
        -0.24319467856273866,
        0.11515358131701765,
        -0.12102429791202417,
        -0.3642409085676969,
        0.19000404698701842,
        -0.014496252977433764,
        -0.021066587838220838
      ],
      "bias": -1.687333600837582,
      "positive_count": 29,
      "total_count": 2500,
      "train_accuracy": 0.7928,
      "eval_f1": 0.2902,
      "eval_precision": 0.1707
    },
    "success_via_semantic_search": {
      "weights": [
        1.5183742656944568,
        0.24751378683566017,
        -0.0012706241379363042,
        -0.03867231944251363,
        -0.04539127844973702,
        -0.11897883859630798,
        0.3579931406391922,
        -0.009231964450662605,
        0.03785976067680319,
        0.020101743357954855,
        0.2126681598373659,
        0.12628887367027689,
        0.4862176150052413,
        -0.06862596249262355,
        -0.24539158517403456,
        0.10520470543922472,
        -0.0679386988381399,
        -0.16900294505073127,
        1.1637903080081367,
        -3.0148264031142907e-05,
        -0.04375939467522785
      ],
      "bias": -1.6736983789771955,
      "positive_count": 205,
      "total_count": 2500,
      "train_accuracy": 0.9028,
      "eval_f1": 0.5714,
      "eval_precision": 0.4634
    },
    "task_ambiguity": {
      "weights": [
        0.3392859894586983,
        -0.7659581984587673,
        -0.27247532356310417,
        0.3782410261257834,
        -0.1325566340135262,
        -0.22482522828185517,
        0.117885997281089,
        -0.1369140302239242,
        0.5272816731387521,
        0.10603827422640075,
        -0.2667493586229853,
        -0.10455842541982888,
        0.12190968408021081,
        -0.13502642035627593,
        -0.48802465012214546,
        -0.17151606143338033,
        -0.5709543188392832,
        -0.5788244857405884,
        -0.4876094523161642,
        0.38363087462021295,
        0.04133379342560451
      ],
      "bias": -1.6952417774923605,
      "positive_count": 6,
      "total_count": 2500,
      "train_accuracy": 0.8824,
      "eval_f1": 0.0781,
      "eval_precision": 0.041
    },
    "verifier_mismatch": {
      "weights": [
        -0.8990684577619434,
        -0.5177386475058249,
        -0.2501219074316177,
        0.17645687500612559,
        -0.1718614168129757,
        -0.18061004572127579,
        -0.2067274147106978,
        -0.1438758184415064,
        0.480551725002566,
        -0.1432369591735054,
        -0.0850890517394629,
        -0.014734145098192947,
        -0.5117751146885108,
        -0.07122158658308607,
        -0.8396070904989639,
        -0.10161323266669467,
        -0.04967087805114192,
        -0.1606206307319784,
        -0.23108987331699266,
        0.0994662391051869,
        0.09292831990597694
      ],
      "bias": -2.1229652752720876,
      "positive_count": 6,
      "total_count": 2500,
      "train_accuracy": 0.9036,
      "eval_f1": 0.0992,
      "eval_precision": 0.0522
    },
    "wrong_tool_choice": {
      "weights": [
        -0.9156791805441999,
        0.1122495443701396,
        -0.311179049009205,
        0.07454070126503566,
        -0.08164035013626332,
        0.23330950309785872,
        -0.004196895969569512,
        -0.008618448040134428,
        0.023966922200206256,
        -0.06736261902783858,
        -0.12309550800646525,
        -0.0036940144439789754,
        -0.7497291283439286,
        -0.10524401909680754,
        -0.8037123453305666,
        -0.1836357790138972,
        0.10008108786689901,
        -0.5438865309588032,
        -0.4820700410969623,
        -0.07593811855383203,
        0.07120428504114447
      ],
      "bias": -1.502329577043891,
      "positive_count": 48,
      "total_count": 2500,
      "train_accuracy": 0.8096,
      "eval_f1": 0.3538,
      "eval_precision": 0.217
    }
  },
  "skipped_categories": [],
  "training_samples": 2500,
  "min_positive": 3,
  "hyperparams": {
    "lr": 0.1,
    "epochs": 300,
    "l2": 0.01
  }
}